svm_type c_svc
kernel_type linear
nr_class 2
total_sv 2
rho 0.741659
label 1 -1
nr_sv 1 1
SV
1.446668025791598e-006 0:-44.398285 1:-58.724067 2:16.986167 3:18.522107 4:2.3788303 5:-6.8702626 6:2.0588344 7:13.119247 8:-1.3967308 9:-3.5297809 10:0.0096229949 11:1.6246482 12:-0.0030764292 13:0.28215111 14:-1.3629357 15:-1.7423967 16:0.66946869 17:-0.18893461 18:0.64501704 19:-0.14961853 20:-0.30587016 21:0.36041823 22:0.2119703 23:-0.53506983 24:-0.89963808 25:-0.16539638 26:-0.050448276 27:0.8951246 28:0.34055207 29:0.094903685 30:-200.52341 31:1002.6171 
-1.446668025791598e-006 0:-20.060191 1:-36.34672 2:14.711706 3:-39.429611 4:0.022106723 5:0.28894214 6:1.3156018 7:2.4445621 8:-0.5695408 9:0.4283866 10:-0.11749371 11:-2.0164516 12:-0.96990185 13:0.70601057 14:1.1643183 15:1.7151349 16:0.807867 17:0.32217458 18:-1.6175418 19:0.78425125 20:-0.89987098 21:0.62187731 22:1.6654351 23:-0.51555109 24:-1.1002976 25:0.27827331 26:0.78190159 27:-0.47632718 28:-0.31005012 29:0.5065667 30:29.676998 31:-148.38499 
