svm_type c_svc
kernel_type linear
nr_class 2
total_sv 2
rho 0.687315
label 1 -1
nr_sv 1 1
SV
6.62046747965699e-008 0:-60.286 1:-23.754158 2:73.31558 3:4.0866164 4:0.86546825 5:0.03231249 6:0.034514661 7:-0.63562513 8:-2.6748969 9:2.2642002 10:-1.3210755 11:3.6897866 12:-1.6444677 13:4.5201962 14:-1.5117159 15:-0.28216703 16:-0.92120003 17:-0.74221418 18:-0.56835925 19:-1.5753715 20:0.7719775 21:1.7731271 22:0.3066475 23:-0.7550978 24:-0.94727045 25:-0.94743599 26:-1.5174207 27:0.81388547 28:-0.79452709 29:-1.2204707 30:-909.23658 31:4546.1829 
-6.62046747965699e-008 0:20.448179 1:-38.837528 2:-14.562686 3:-37.709648 4:2.6815273 5:2.7567389 6:1.8672054 7:1.0171862 8:-0.66879021 9:-1.146294 10:0.55663428 11:-4.4534162 12:0.95374329 13:2.2049966 14:-1.9975523 15:0.18231046 16:-1.2474544 17:-1.5210983 18:-0.16834622 19:0.43589451 20:1.5435651 21:0.08879439 22:-0.4441473 23:0.80164289 24:0.73050792 25:-0.01005165 26:-0.10843481 27:-0.17843816 28:0.47083075 29:-1.7537981 30:168.3854 31:-841.92702 
