svm_type c_svc
kernel_type linear
nr_class 2
total_sv 2
rho 0.703502
label 1 -1
nr_sv 1 1
SV
4.281539315654337e-006 0:-19.803703 1:-34.494389 2:-13.984826 3:-40.462805 4:-0.86531416 5:0.044228583 6:-1.4412176 7:0.9589699 8:0.064414352 9:-0.76443467 10:0.036290608 11:0.96789067 12:1.2797949 13:0.15350632 14:1.8530478 15:1.231526 16:-2.1741273 17:-1.4489014 18:1.6197378 19:-0.35320077 20:-0.96536385 21:-0.74508067 22:0.82426069 23:0.31676695 24:0.088109223 25:1.3823162 26:-0.12879358 27:0.016606993 28:-0.15953742 29:0.96080604 30:-114.69463 31:573.47314 
-4.281539315654337e-006 0:-44.53008 1:-67.967009 2:-20.853814 3:28.594166 4:3.9954761 5:-9.4231892 6:-10.317055 7:-1.1342128 8:-1.0904003 9:-0.068621842 10:0.49313724 11:-0.57709806 12:0.6863496 13:0.05836999 14:0.73171648 15:-1.2039969 16:0.59396158 17:0.58316061 18:0.13264028 19:-0.87961001 20:-0.45410224 21:-0.039260824 22:0.11859931 23:-0.29379427 24:-0.020394984 25:-0.18141721 26:0.60594967 27:-0.2305611 28:-1.0971244 29:-0.50550477 30:18.367457 31:-91.837283 
