svm_type c_svc
kernel_type linear
nr_class 2
total_sv 2
rho 0.707561
label 1 -1
nr_sv 1 1
SV
3.535275872638069e-007 0:-70.296923 1:-63.824779 2:38.26162 3:1.3211766 4:0.37275552 5:-0.24188858 6:-0.24033408 7:-0.48545417 8:0.1862897 9:1.8854528 10:-0.37755574 11:-0.17827552 12:0.42021208 13:-0.45891301 14:0.993747 15:0.9522055 16:-0.89701805 17:1.4347615 18:-0.30247874 19:-1.1378351 20:0.58096464 21:2.3963327 22:-0.40042371 23:-1.5590585 24:0.75126228 25:0.6402076 26:1.4661246 27:0.15328124 28:0.10538723 29:-0.55891475 30:-398.02097 31:1990.1049 
-3.535275872638069e-007 0:-44.53008 1:67.967009 2:-20.853814 3:28.594166 4:-3.9954761 5:-9.4231892 6:-10.317055 7:-1.1342128 8:-1.0904003 9:0.068621842 10:-0.49313724 11:-0.57709806 12:-0.6863496 13:0.05836999 14:0.73171648 15:-1.2039969 16:0.59396158 17:-0.58316061 18:0.13264028 19:0.87961001 20:-0.45410224 21:-0.039260824 22:0.11859931 23:0.29379427 24:0.020394984 25:0.18141721 26:-0.60594967 27:0.2305611 28:1.0971244 29:-0.50550477 30:67.512291 31:-337.56145 
