svm_type c_svc
kernel_type linear
nr_class 2
total_sv 3
rho 0.778645
label 1 -1
nr_sv 1 2
SV
4.095796706613666e-006 0:-39.979773 1:-32.778503 2:-40.106462 3:-4.602329 4:-18.877808 5:-2.4022609 6:2.3076664 7:1.5413262 8:-2.2928252 9:-2.2828497 10:-4.5004233 11:-1.3777908 12:1.6533089 13:-1.4169756 14:1.700639 15:-0.67617466 16:0.69499777 17:0.037549585 18:-0.78350411 19:-0.027778624 20:0.35012931 21:-0.32753238 22:0.36030302 23:-0.83757496 24:0.18204114 25:-0.18121613 26:0.34570599 27:0.54527111 28:0.90659684 29:0.15342586 30:-121.7535 31:608.76748 
-1.098817397923009e-006 0:20.060191 1:36.34672 2:-14.711706 3:39.429611 4:0.022106723 5:0.28894214 6:-1.3156018 7:-2.4445621 8:-0.5695408 9:0.4283866 10:-0.11749371 11:-2.0164516 12:-0.96990185 13:0.70601057 14:1.1643183 15:1.7151349 16:-0.807867 17:-0.32217458 18:-1.6175418 19:0.78425125 20:0.89987098 21:0.62187731 22:1.6654351 23:-0.51555109 24:1.1002976 25:0.27827331 26:-0.78190159 27:-0.47632718 28:0.31005012 29:0.5065667 30:14.991452 31:-74.957258 
-2.996979308690656e-006 0:71.146466 1:-63.779368 2:37.646795 3:-1.6638073 4:-0.025880226 5:0.51710962 6:-1.6377667 7:-1.1515419 8:0.65527078 9:-0.47694636 10:1.2619567 11:0.43529381 12:2.0998108 13:-1.7434697 14:-0.63035898 15:2.0386298 16:1.0782677 17:0.050669414 18:1.4363066 19:0.22429618 20:-0.70668511 21:-0.63537053 22:-0.11497008 23:0.32126501 24:1.2196257 25:0.61829708 26:-0.56292065 27:0.20132208 28:0.0076315387 29:-0.054134392 30:12.656324 31:-63.281622 
