svm_type c_svc
kernel_type linear
nr_class 2
total_sv 3
rho 0.768909
label 1 -1
nr_sv 1 2
SV
1.898155533519538e-005 0:-36.606724 1:-32.016729 2:41.978787 3:3.8269489 4:22.136707 5:-0.27100247 6:0.50224024 7:0.28251383 8:-0.18952595 9:-0.075032374 10:0.55314977 11:-0.46507036 12:-0.70471477 13:-0.43447568 14:0.75716894 15:-1.6363122 16:0.2507717 17:-0.042558223 18:-0.76896714 19:-0.8657216 20:-0.14016994 21:0.12029768 22:0.010588056 23:-0.44538793 24:-0.29108738 25:0.52119751 26:-0.96836856 27:-0.041005176 28:1.0270497 29:0.47390008 30:-56.223079 31:281.11539 
-1.004796950958457e-007 0:45.747953 1:72.483338 2:21.708059 3:31.430099 4:2.2116433 5:4.2038823 6:6.2921811 7:5.9858626 8:0.050723236 9:-0.7982716 10:0.36507134 11:-0.16942294 12:-1.4652051 13:0.21335734 14:-0.23141705 15:-0.25010392 16:-0.50620611 17:-0.19336505 18:-0.23052211 19:0.52736276 20:0.35266106 21:0.18599706 22:0.50386344 23:0.81144747 24:0.58961085 25:0.31835457 26:0.06744555 27:-1.3241201 28:-0.84557575 29:0.67934249 30:7.4807795 31:-37.403898 
-1.888107564009954e-005 0:-40.208651 1:-31.044681 2:40.38598 3:5.4419081 4:-20.168224 5:0.14433596 6:0.98537425 7:-0.006420624 8:0.070241051 9:0.23540528 10:2.7422049 11:-0.040858325 12:0.0049718426 13:-0.43636913 14:0.90019614 15:-1.2944274 16:0.42794814 17:-0.0034596735 18:-0.2562692 19:-0.19607773 20:-0.03113121 21:0.69469495 22:-0.58111997 23:-0.68126144 24:0.53691469 25:-0.24914171 26:-0.23385072 27:1.2384458 28:-0.88292371 29:-0.45816359 30:6.8877591 31:-34.438795 
